<?xml version="1.0"?>
<opencv_storage>
<cascade>
  <stageType>BOOST</stageType>
  <featureType>HAAR</featureType>
  <height>24</height>
  <width>24</width>
  <stageParams>
    <boostType>GAB</boostType>
    <minHitRate>9.9500000476837158e-001</minHitRate>
    <maxFalseAlarm>5.0000000000000000e-001</maxFalseAlarm>
    <weightTrimRate>9.4999999999999996e-001</weightTrimRate>
    <maxDepth>1</maxDepth>
    <maxWeakCount>100</maxWeakCount></stageParams>
  <featureParams>
    <maxCatCount>0</maxCatCount>
    <featSize>1</featSize>
    <mode>BASIC</mode></featureParams>
  <stageNum>17</stageNum>
  <stages>
    <!-- stage 0 -->
    <_>
      <maxWeakCount>2</maxWeakCount>
      <stageThreshold>9.3592647463083267e-003</stageThreshold>
      <weakClassifiers>
        <_>
          <internalNodes>
            0 -1 32 -5.5891998112201691e-002</internalNodes>
          <leafValues>
            9.2810457944869995e-001 -9.5024877786636353e-001</leafValues></_>
        <_>
          <internalNodes>
            0 -1 53 -3.7520602345466614e-002</internalNodes>
          <leafValues>
            9.5960801839828491e-001 -7.1259814500808716e-001</leafValues></_></weakClassifiers></_>
    <!-- stage 1 -->
    <_>
      <maxWeakCount>2</maxWeakCount>
      <stageThreshold>-5.4146651178598404e-002</stageThreshold>
      <weakClassifiers>
        <_>
          <internalNodes>
            0 -1 48 1.7949443310499191e-002</internalNodes>
          <leafValues>
            -9.5789474248886108e-001 8.6750787496566772e-001</leafValues></_>
        <_>
          <internalNodes>
            0 -1 1 -4.3871730566024780e-002</internalNodes>
          <leafValues>
            9.0374809503555298e-001 -8.1467390060424805e-001</leafValues></_></weakClassifiers></_>
    <!-- stage 2 -->
    <_>
      <maxWeakCount>4</maxWeakCount>
      <stageThreshold>-1.5472892522811890e+000</stageThreshold>
      <weakClassifiers>
        <_>
          <internalNodes>
            0 -1 34 -4.4005278497934341e-002</internalNodes>
          <leafValues>
            6.9275361299514771e-001 -9.0123456716537476e-001</leafValues></_>
        <_>
          <internalNodes>
            0 -1 14 4.6162530779838562e-003</internalNodes>
          <leafValues>
            -7.6309138536453247e-001 6.4926564693450928e-001</leafValues></_>
        <_>
          <internalNodes>
            0 -1 51 4.2446069419384003e-003</internalNodes>
          <leafValues>
            -6.0124051570892334e-001 7.0616340637207031e-001</leafValues></_>
        <_>
          <internalNodes>
            0 -1 6 -8.5547110065817833e-003</internalNodes>
          <leafValues>
            7.1827727556228638e-001 -6.2206518650054932e-001</leafValues></_></weakClassifiers></_>
    <!-- stage 3 -->
    <_>
      <maxWeakCount>1</maxWeakCount>
      <stageThreshold>6.2500000000000000e-001</stageThreshold>
      <weakClassifiers>
        <_>
          <internalNodes>
            0 -1 35 -1.6754383221268654e-002</internalNodes>
          <leafValues>
            6.2500000000000000e-001 -9.8561149835586548e-001</leafValues></_></weakClassifiers></_>
    <!-- stage 4 -->
    <_>
      <maxWeakCount>2</maxWeakCount>
      <stageThreshold>-7.5387045741081238e-002</stageThreshold>
      <weakClassifiers>
        <_>
          <internalNodes>
            0 -1 28 4.8945344984531403e-002</internalNodes>
          <leafValues>
            -5.3968256711959839e-001 8.9803922176361084e-001</leafValues></_>
        <_>
          <internalNodes>
            0 -1 49 2.1077629178762436e-002</internalNodes>
          <leafValues>
            -9.7342628240585327e-001 5.6794488430023193e-001</leafValues></_></weakClassifiers></_>
    <!-- stage 5 -->
    <_>
      <maxWeakCount>4</maxWeakCount>
      <stageThreshold>-3.6684507131576538e-001</stageThreshold>
      <weakClassifiers>
        <_>
          <internalNodes>
            0 -1 2 -2.6880430057644844e-002</internalNodes>
          <leafValues>
            7.3124998807907104e-001 -7.5401067733764648e-001</leafValues></_>
        <_>
          <internalNodes>
            0 -1 50 4.0062027983367443e-003</internalNodes>
          <leafValues>
            -7.4156785011291504e-001 6.8049412965774536e-001</leafValues></_>
        <_>
          <internalNodes>
            0 -1 56 -4.4917307794094086e-002</internalNodes>
          <leafValues>
            7.1698707342147827e-001 -5.7967543601989746e-001</leafValues></_>
        <_>
          <internalNodes>
            0 -1 19 -1.7252579331398010e-002</internalNodes>
          <leafValues>
            -8.9723354578018188e-001 4.1174638271331787e-001</leafValues></_></weakClassifiers></_>
    <!-- stage 6 -->
    <_>
      <maxWeakCount>4</maxWeakCount>
      <stageThreshold>-2.8054162859916687e-001</stageThreshold>
      <weakClassifiers>
        <_>
          <internalNodes>
            0 -1 22 -6.0283593833446503e-002</internalNodes>
          <leafValues>
            7.3619633913040161e-001 -8.1215471029281616e-001</leafValues></_>
        <_>
          <internalNodes>
            0 -1 37 2.7362167835235596e-001</internalNodes>
          <leafValues>
            -4.5883136987686157e-001 8.7161964178085327e-001</leafValues></_>
        <_>
          <internalNodes>
            0 -1 10 -2.0781341008841991e-003</internalNodes>
          <leafValues>
            -8.0847311019897461e-001 5.1721215248107910e-001</leafValues></_>
        <_>
          <internalNodes>
            0 -1 29 -1.8690049648284912e-002</internalNodes>
          <leafValues>
            4.7323226928710938e-001 -8.1911545991897583e-001</leafValues></_></weakClassifiers></_>
    <!-- stage 7 -->
    <_>
      <maxWeakCount>5</maxWeakCount>
      <stageThreshold>-6.5723550319671631e-001</stageThreshold>
      <weakClassifiers>
        <_>
          <internalNodes>
            0 -1 5 2.3722377419471741e-001</internalNodes>
          <leafValues>
            -5.6118142604827881e-001 8.3703702688217163e-001</leafValues></_>
        <_>
          <internalNodes>
            0 -1 0 -4.1116452775895596e-003</internalNodes>
          <leafValues>
            -9.5210826396942139e-001 4.8491650819778442e-001</leafValues></_>
        <_>
          <internalNodes>
            0 -1 39 1.1658684909343719e-001</internalNodes>
          <leafValues>
            -6.2707877159118652e-001 5.8690291643142700e-001</leafValues></_>
        <_>
          <internalNodes>
            0 -1 33 -5.2893735468387604e-002</internalNodes>
          <leafValues>
            6.0776883363723755e-001 -5.8940249681472778e-001</leafValues></_>
        <_>
          <internalNodes>
            0 -1 55 -4.7691680490970612e-002</internalNodes>
          <leafValues>
            6.7431694269180298e-001 -5.2302998304367065e-001</leafValues></_></weakClassifiers></_>
    <!-- stage 8 -->
    <_>
      <maxWeakCount>3</maxWeakCount>
      <stageThreshold>-3.6378061771392822e-001</stageThreshold>
      <weakClassifiers>
        <_>
          <internalNodes>
            0 -1 3 1.1203672736883163e-001</internalNodes>
          <leafValues>
            -5.6521737575531006e-001 8.0505412817001343e-001</leafValues></_>
        <_>
          <internalNodes>
            0 -1 17 -1.2580819427967072e-002</internalNodes>
          <leafValues>
            8.1695222854614258e-001 -4.7159290313720703e-001</leafValues></_>
        <_>
          <internalNodes>
            0 -1 45 -5.5088279768824577e-003</internalNodes>
          <leafValues>
            6.7302966117858887e-001 -5.3749483823776245e-001</leafValues></_></weakClassifiers></_>
    <!-- stage 9 -->
    <_>
      <maxWeakCount>4</maxWeakCount>
      <stageThreshold>-6.8159407377243042e-001</stageThreshold>
      <weakClassifiers>
        <_>
          <internalNodes>
            0 -1 21 2.7068084478378296e-001</internalNodes>
          <leafValues>
            -5.0627613067626953e-001 7.9850745201110840e-001</leafValues></_>
        <_>
          <internalNodes>
            0 -1 38 -2.4078018032014370e-003</internalNodes>
          <leafValues>
            4.9439591169357300e-001 -8.5673743486404419e-001</leafValues></_>
        <_>
          <internalNodes>
            0 -1 47 3.8823424256406724e-004</internalNodes>
          <leafValues>
            3.6667886376380920e-001 -8.2110434770584106e-001</leafValues></_>
        <_>
          <internalNodes>
            0 -1 16 -1.1437528301030397e-003</internalNodes>
          <leafValues>
            -8.7917596101760864e-001 3.1474065780639648e-001</leafValues></_></weakClassifiers></_>
    <!-- stage 10 -->
    <_>
      <maxWeakCount>5</maxWeakCount>
      <stageThreshold>-1.2473870515823364e+000</stageThreshold>
      <weakClassifiers>
        <_>
          <internalNodes>
            0 -1 52 -1.3439425826072693e-001</internalNodes>
          <leafValues>
            7.2972971200942993e-001 -5.8293837308883667e-001</leafValues></_>
        <_>
          <internalNodes>
            0 -1 13 -3.3992379903793335e-002</internalNodes>
          <leafValues>
            -9.0561515092849731e-001 4.2894843220710754e-001</leafValues></_>
        <_>
          <internalNodes>
            0 -1 15 8.2665623631328344e-004</internalNodes>
          <leafValues>
            -8.5344636440277100e-001 3.7850129604339600e-001</leafValues></_>
        <_>
          <internalNodes>
            0 -1 27 -1.0302494280040264e-002</internalNodes>
          <leafValues>
            6.0811877250671387e-001 -5.7905673980712891e-001</leafValues></_>
        <_>
          <internalNodes>
            0 -1 11 -3.8858563639223576e-003</internalNodes>
          <leafValues>
            -9.0316087007522583e-001 3.3910599350929260e-001</leafValues></_></weakClassifiers></_>
    <!-- stage 11 -->
    <_>
      <maxWeakCount>1</maxWeakCount>
      <stageThreshold>5.4123711585998535e-001</stageThreshold>
      <weakClassifiers>
        <_>
          <internalNodes>
            0 -1 25 1.3699495466426015e-003</internalNodes>
          <leafValues>
            5.4123711585998535e-001 -9.8319327831268311e-001</leafValues></_></weakClassifiers></_>
    <!-- stage 12 -->
    <_>
      <maxWeakCount>4</maxWeakCount>
      <stageThreshold>-3.4624314308166504e-001</stageThreshold>
      <weakClassifiers>
        <_>
          <internalNodes>
            0 -1 26 -4.3235082179307938e-002</internalNodes>
          <leafValues>
            7.5342464447021484e-001 -5.9069764614105225e-001</leafValues></_>
        <_>
          <internalNodes>
            0 -1 41 -5.0353107508271933e-004</internalNodes>
          <leafValues>
            -7.6914262771606445e-001 4.9378442764282227e-001</leafValues></_>
        <_>
          <internalNodes>
            0 -1 46 -1.7565769376233220e-003</internalNodes>
          <leafValues>
            4.6258416771888733e-001 -7.3908317089080811e-001</leafValues></_>
        <_>
          <internalNodes>
            0 -1 7 1.9474013242870569e-003</internalNodes>
          <leafValues>
            4.8975327610969543e-001 -7.0877254009246826e-001</leafValues></_></weakClassifiers></_>
    <!-- stage 13 -->
    <_>
      <maxWeakCount>3</maxWeakCount>
      <stageThreshold>-5.4743599891662598e-001</stageThreshold>
      <weakClassifiers>
        <_>
          <internalNodes>
            0 -1 9 -5.0584334880113602e-002</internalNodes>
          <leafValues>
            -9.4827586412429810e-001 5.1918160915374756e-001</leafValues></_>
        <_>
          <internalNodes>
            0 -1 8 -4.5647434890270233e-002</internalNodes>
          <leafValues>
            7.0535349845886230e-001 -6.1916834115982056e-001</leafValues></_>
        <_>
          <internalNodes>
            0 -1 54 -4.3043503537774086e-003</internalNodes>
          <leafValues>
            6.9358885288238525e-001 -4.4744926691055298e-001</leafValues></_></weakClassifiers></_>
    <!-- stage 14 -->
    <_>
      <maxWeakCount>2</maxWeakCount>
      <stageThreshold>-6.8132549524307251e-002</stageThreshold>
      <weakClassifiers>
        <_>
          <internalNodes>
            0 -1 20 -4.6798631548881531e-002</internalNodes>
          <leafValues>
            8.0000001192092896e-001 -5.7709252834320068e-001</leafValues></_>
        <_>
          <internalNodes>
            0 -1 30 -6.0886047780513763e-002</internalNodes>
          <leafValues>
            5.1699316501617432e-001 -8.6813253164291382e-001</leafValues></_></weakClassifiers></_>
    <!-- stage 15 -->
    <_>
      <maxWeakCount>5</maxWeakCount>
      <stageThreshold>-2.6401996612548828e-001</stageThreshold>
      <weakClassifiers>
        <_>
          <internalNodes>
            0 -1 4 1.2076146900653839e-002</internalNodes>
          <leafValues>
            -4.7368422150611877e-001 8.0769228935241699e-001</leafValues></_>
        <_>
          <internalNodes>
            0 -1 31 -1.8564518541097641e-002</internalNodes>
          <leafValues>
            5.1899379491806030e-001 -6.7727684974670410e-001</leafValues></_>
        <_>
          <internalNodes>
            0 -1 43 1.3686302118003368e-003</internalNodes>
          <leafValues>
            6.1166340112686157e-001 -5.4425054788589478e-001</leafValues></_>
        <_>
          <internalNodes>
            0 -1 42 -2.7460912242531776e-003</internalNodes>
          <leafValues>
            7.8017276525497437e-001 -3.6270773410797119e-001</leafValues></_>
        <_>
          <internalNodes>
            0 -1 23 -3.0760576948523521e-002</internalNodes>
          <leafValues>
            8.2392573356628418e-001 -5.0489509105682373e-001</leafValues></_></weakClassifiers></_>
    <!-- stage 16 -->
    <_>
      <maxWeakCount>6</maxWeakCount>
      <stageThreshold>-8.5797500610351563e-001</stageThreshold>
      <weakClassifiers>
        <_>
          <internalNodes>
            0 -1 24 6.7906410549767315e-005</internalNodes>
          <leafValues>
            -6.0563379526138306e-001 7.5510203838348389e-001</leafValues></_>
        <_>
          <internalNodes>
            0 -1 36 1.8314528279006481e-004</internalNodes>
          <leafValues>
            5.0147849321365356e-001 -8.6225736141204834e-001</leafValues></_>
        <_>
          <internalNodes>
            0 -1 12 7.0037961006164551e-002</internalNodes>
          <leafValues>
            3.5375219583511353e-001 -9.3772870302200317e-001</leafValues></_>
        <_>
          <internalNodes>
            0 -1 44 9.6824747743085027e-004</internalNodes>
          <leafValues>
            5.1591706275939941e-001 -7.0060598850250244e-001</leafValues></_>
        <_>
          <internalNodes>
            0 -1 40 -2.9887044802308083e-003</internalNodes>
          <leafValues>
            -7.1838003396987915e-001 5.1276892423629761e-001</leafValues></_>
        <_>
          <internalNodes>
            0 -1 18 2.1628032845910639e-004</internalNodes>
          <leafValues>
            4.4400095939636230e-001 -7.6404541730880737e-001</leafValues></_></weakClassifiers></_></stages>
  <features>
    <_>
      <rects>
        <_>
          0 5 21 8 -1.</_>
        <_>
          7 5 7 8 3.</_></rects>
      <tilted>0</tilted></_>
    <_>
      <rects>
        <_>
          0 8 9 10 -1.</_>
        <_>
          3 8 3 10 3.</_></rects>
      <tilted>0</tilted></_>
    <_>
      <rects>
        <_>
          0 12 9 7 -1.</_>
        <_>
          3 12 3 7 3.</_></rects>
      <tilted>0</tilted></_>
    <_>
      <rects>
        <_>
          0 12 10 12 -1.</_>
        <_>
          5 12 5 12 2.</_></rects>
      <tilted>0</tilted></_>
    <_>
      <rects>
        <_>
          1 0 3 10 -1.</_>
        <_>
          1 5 3 5 2.</_></rects>
      <tilted>0</tilted></_>
    <_>
      <rects>
        <_>
          1 0 18 14 -1.</_>
        <_>
          1 7 18 7 2.</_></rects>
      <tilted>0</tilted></_>
    <_>
      <rects>
        <_>
          1 21 18 1 -1.</_>
        <_>
          10 21 9 1 2.</_></rects>
      <tilted>0</tilted></_>
    <_>
      <rects>
        <_>
          2 5 12 2 -1.</_>
        <_>
          8 5 6 2 2.</_></rects>
      <tilted>0</tilted></_>
    <_>
      <rects>
        <_>
          2 11 6 13 -1.</_>
        <_>
          4 11 2 13 3.</_></rects>
      <tilted>0</tilted></_>
    <_>
      <rects>
        <_>
          3 3 14 19 -1.</_>
        <_>
          10 3 7 19 2.</_></rects>
      <tilted>0</tilted></_>
    <_>
      <rects>
        <_>
          3 12 5 6 -1.</_>
        <_>
          3 15 5 3 2.</_></rects>
      <tilted>0</tilted></_>
    <_>
      <rects>
        <_>
          3 15 10 4 -1.</_>
        <_>
          3 17 10 2 2.</_></rects>
      <tilted>0</tilted></_>
    <_>
      <rects>
        <_>
          4 0 16 24 -1.</_>
        <_>
          12 0 8 24 2.</_></rects>
      <tilted>0</tilted></_>
    <_>
      <rects>
        <_>
          4 4 18 18 -1.</_>
        <_>
          13 4 9 18 2.</_></rects>
      <tilted>0</tilted></_>
    <_>
      <rects>
        <_>
          4 5 4 6 -1.</_>
        <_>
          4 5 2 3 2.</_>
        <_>
          6 8 2 3 2.</_></rects>
      <tilted>0</tilted></_>
    <_>
      <rects>
        <_>
          4 7 4 4 -1.</_>
        <_>
          4 7 2 2 2.</_>
        <_>
          6 9 2 2 2.</_></rects>
      <tilted>0</tilted></_>
    <_>
      <rects>
        <_>
          4 15 9 2 -1.</_>
        <_>
          4 16 9 1 2.</_></rects>
      <tilted>0</tilted></_>
    <_>
      <rects>
        <_>
          4 23 12 1 -1.</_>
        <_>
          10 23 6 1 2.</_></rects>
      <tilted>0</tilted></_>
    <_>
      <rects>
        <_>
          5 2 1 12 -1.</_>
        <_>
          5 8 1 6 2.</_></rects>
      <tilted>0</tilted></_>
    <_>
      <rects>
        <_>
          5 2 14 18 -1.</_>
        <_>
          12 2 7 18 2.</_></rects>
      <tilted>0</tilted></_>
    <_>
      <rects>
        <_>
          5 13 12 8 -1.</_>
        <_>
          11 13 6 8 2.</_></rects>
      <tilted>0</tilted></_>
    <_>
      <rects>
        <_>
          6 0 17 14 -1.</_>
        <_>
          6 7 17 7 2.</_></rects>
      <tilted>0</tilted></_>
    <_>
      <rects>
        <_>
          6 1 8 21 -1.</_>
        <_>
          10 1 4 21 2.</_></rects>
      <tilted>0</tilted></_>
    <_>
      <rects>
        <_>
          6 2 7 9 -1.</_>
        <_>
          6 5 7 3 3.</_></rects>
      <tilted>0</tilted></_>
    <_>
      <rects>
        <_>
          6 8 1 8 -1.</_>
        <_>
          6 12 1 4 2.</_></rects>
      <tilted>0</tilted></_>
    <_>
      <rects>
        <_>
          6 15 7 4 -1.</_>
        <_>
          6 17 7 2 2.</_></rects>
      <tilted>0</tilted></_>
    <_>
      <rects>
        <_>
          6 17 18 7 -1.</_>
        <_>
          15 17 9 7 2.</_></rects>
      <tilted>0</tilted></_>
    <_>
      <rects>
        <_>
          6 23 12 1 -1.</_>
        <_>
          10 23 4 1 3.</_></rects>
      <tilted>0</tilted></_>
    <_>
      <rects>
        <_>
          7 0 2 18 -1.</_>
        <_>
          7 9 2 9 2.</_></rects>
      <tilted>0</tilted></_>
    <_>
      <rects>
        <_>
          7 1 4 18 -1.</_>
        <_>
          9 1 2 18 2.</_></rects>
      <tilted>0</tilted></_>
    <_>
      <rects>
        <_>
          7 6 9 13 -1.</_>
        <_>
          10 6 3 13 3.</_></rects>
      <tilted>0</tilted></_>
    <_>
      <rects>
        <_>
          7 8 6 15 -1.</_>
        <_>
          7 13 6 5 3.</_></rects>
      <tilted>0</tilted></_>
    <_>
      <rects>
        <_>
          7 10 9 14 -1.</_>
        <_>
          10 10 3 14 3.</_></rects>
      <tilted>0</tilted></_>
    <_>
      <rects>
        <_>
          8 0 11 9 -1.</_>
        <_>
          8 3 11 3 3.</_></rects>
      <tilted>0</tilted></_>
    <_>
      <rects>
        <_>
          8 6 9 11 -1.</_>
        <_>
          11 6 3 11 3.</_></rects>
      <tilted>0</tilted></_>
    <_>
      <rects>
        <_>
          9 6 4 16 -1.</_>
        <_>
          9 14 4 8 2.</_></rects>
      <tilted>0</tilted></_>
    <_>
      <rects>
        <_>
          10 1 6 7 -1.</_>
        <_>
          12 1 2 7 3.</_></rects>
      <tilted>0</tilted></_>
    <_>
      <rects>
        <_>
          10 2 9 18 -1.</_>
        <_>
          10 8 9 6 3.</_></rects>
      <tilted>0</tilted></_>
    <_>
      <rects>
        <_>
          10 4 6 8 -1.</_>
        <_>
          12 4 2 8 3.</_></rects>
      <tilted>0</tilted></_>
    <_>
      <rects>
        <_>
          10 4 12 12 -1.</_>
        <_>
          14 4 4 12 3.</_></rects>
      <tilted>0</tilted></_>
    <_>
      <rects>
        <_>
          10 9 2 13 -1.</_>
        <_>
          11 9 1 13 2.</_></rects>
      <tilted>0</tilted></_>
    <_>
      <rects>
        <_>
          10 15 1 4 -1.</_>
        <_>
          10 17 1 2 2.</_></rects>
      <tilted>0</tilted></_>
    <_>
      <rects>
        <_>
          11 7 1 9 -1.</_>
        <_>
          11 10 1 3 3.</_></rects>
      <tilted>0</tilted></_>
    <_>
      <rects>
        <_>
          11 19 12 3 -1.</_>
        <_>
          15 19 4 3 3.</_></rects>
      <tilted>0</tilted></_>
    <_>
      <rects>
        <_>
          12 2 2 10 -1.</_>
        <_>
          12 2 1 5 2.</_>
        <_>
          13 7 1 5 2.</_></rects>
      <tilted>0</tilted></_>
    <_>
      <rects>
        <_>
          12 5 1 18 -1.</_>
        <_>
          12 11 1 6 3.</_></rects>
      <tilted>0</tilted></_>
    <_>
      <rects>
        <_>
          12 5 3 17 -1.</_>
        <_>
          13 5 1 17 3.</_></rects>
      <tilted>0</tilted></_>
    <_>
      <rects>
        <_>
          12 15 1 6 -1.</_>
        <_>
          12 18 1 3 2.</_></rects>
      <tilted>0</tilted></_>
    <_>
      <rects>
        <_>
          14 1 2 12 -1.</_>
        <_>
          14 7 2 6 2.</_></rects>
      <tilted>0</tilted></_>
    <_>
      <rects>
        <_>
          14 3 4 8 -1.</_>
        <_>
          14 7 4 4 2.</_></rects>
      <tilted>0</tilted></_>
    <_>
      <rects>
        <_>
          15 4 3 12 -1.</_>
        <_>
          16 4 1 12 3.</_></rects>
      <tilted>0</tilted></_>
    <_>
      <rects>
        <_>
          15 6 3 9 -1.</_>
        <_>
          16 6 1 9 3.</_></rects>
      <tilted>0</tilted></_>
    <_>
      <rects>
        <_>
          16 0 8 23 -1.</_>
        <_>
          20 0 4 23 2.</_></rects>
      <tilted>0</tilted></_>
    <_>
      <rects>
        <_>
          17 5 6 7 -1.</_>
        <_>
          20 5 3 7 2.</_></rects>
      <tilted>0</tilted></_>
    <_>
      <rects>
        <_>
          17 13 6 3 -1.</_>
        <_>
          19 13 2 3 3.</_></rects>
      <tilted>0</tilted></_>
    <_>
      <rects>
        <_>
          18 4 6 8 -1.</_>
        <_>
          21 4 3 8 2.</_></rects>
      <tilted>0</tilted></_>
    <_>
      <rects>
        <_>
          18 6 6 7 -1.</_>
        <_>
          21 6 3 7 2.</_></rects>
      <tilted>0</tilted></_></features></cascade>
</opencv_storage>
